-2.292784193833661731e+06
-2.130813626979423046e+09
-5.342944227546578986e+03
-6.447939787402337060e+03
2.240558663008858857e+05
5.146237893941544928e+06
2.870563515457489341e+07
9.342481085409116745e+07
1.593449928533995152e+07
4.567630966414932907e+07
-2.067320359164450765e+08
-8.793011944691619277e+07
5.054212362122317776e+06
2.352243521886853967e+06
1.485990197764012218e+07
4.563647190761985257e+03
-2.257952564494348917e+04
-4.637747084330552752e+03
5.448253396214190125e+07
8.826622046942050755e+07
-1.258082623107210994e+08
-1.751279210209049284e+08
9.872893948258690536e+07
1.177269384384998828e+08
-2.347028183063881670e+02
-2.229660080282648005e-01
4.209671836691807956e+06
3.378038820806387957e+04
2.772669263483277755e+05
-4.002101849236970884e+04
1.789044266138448939e+07
3.932906252806366235e+07
1.533698121242702007e+08
5.865001674730397016e+07
7.836763446953485906e+07
1.089263711580771804e+08
-2.068248872353020906e+08
-1.761522874611685872e+08
-1.744911495691851676e+08
2.792406017880934756e+06
2.585767318231483921e+06
2.906503344139837194e+06
1.065299666141423769e+07
2.063869172366324440e+07
-1.995229189354480505e+08
1.605522161611891985e+08
-1.109698533091701567e+08
1.651969993028062209e+07
-1.502205365963038988e+06
-3.356197247938113833e+03
3.197176576748295128e+07
-1.870817958353157640e+08
-4.119205046876649559e+07
-7.901092902373868972e+06
1.082360634894871153e+07
1.164517796638360992e+07
2.008626437360221148e+07
1.164063551786110178e+07
3.036709286265526712e+07
2.149956763978795707e+07
2.707753163822340965e+07
2.256620248845993192e+05
2.569845453145056381e+05
-3.649017399361936259e+05
4.050637300709337978e+03
1.485990651078073680e+07
3.489578895788307302e+06
-6.009561913393697143e+07
1.593837754754318595e+08
-4.757847940430773795e+07
-2.292762702504944988e+06
2.707683084594002366e+07
2.707754986867088079e+07
-4.300667751592382789e+07
1.561001715338107664e+06
3.650726488350687921e+07
-3.034995223697227240e+07
-3.002498398685876131e+08
8.805634554961267114e+07
-6.664896009268835783e+08
-3.814072316933470964e+07
6.171405259628355503e+06
2.011720275161671340e+08
-1.057371239267294109e+07
4.375847925501870486e+04
2.985822249417920830e+04
1.066617505399619415e+07
4.633072339601380378e+07
6.775506824448907375e+07
4.588044324899352342e+07
7.449388993636846542e+07
-1.892914738967094421e+08
-1.255245050160131156e+08
-1.727512655475794896e+07
-1.159768875019998848e+07
4.199219944394296035e+05
2.633813206026681000e+05
2.707690297010210156e+07
-1.797492397162086563e+06
-9.300961892185776378e+04
1.186795714791746438e+08
-5.621590557947166264e+07
2.530139842865099609e+08
-6.623457850248548388e+07
-3.336312736752631664e+08
-1.176502084305050969e+07
-9.871928498601069441e+04
-1.076336224805656059e+02
-7.089093092868290842e+04
1.052925706977521622e+05
-1.800344988619164005e+07
4.272840962117321789e+06
-1.809950686523278011e+06
9.750771461553245783e+07
-1.117931472878513341e+04
6.870756995685473084e+05
-3.960284035732177645e+07
-1.855281520155761763e+07
6.781181667824458331e+06
1.871250234627492260e+06
-2.135344356044036103e+05
-1.059122184241241217e+08
1.401442511628583074e+07
4.381351681188405491e+06
-2.032060035096085630e+04
2.800676868308866024e+07
7.325222931290429831e+07
-2.207434460064007640e+08
2.367145358950877562e+06
1.723895979710584214e+01
6.527642892387916618e+02
9.649689725060462952e+06
-4.191147410896668443e+05
-3.156361710662958212e+05
-4.123841331650666893e+06
3.468862188095461577e+07
2.898375768223339319e+07
2.510393855347762257e+07
2.622640486179628968e+07
-1.623802810105057806e+07
-3.582944047044429928e+06
-1.625608060410454571e+08
-2.619395751081433892e+07
-4.456003757284001913e+05
1.018718717414209038e+02
6.592416080054179019e+02
-5.510516521133897641e+02
